
\data\
ngram 1=2840139
ngram 2=6576686
ngram 3=2858409
\1-grams:

-7.468491       A@a0.int10=1;   -0.16385
-7.239256       MI@_01inverse(this,$C0?0,$C0?0,$C0?0,$C0?0,0)@) -0.3030558
-7.239256       MI@_01inverse(this,$C0?0,$C0?0,$C0?0,$C0?0,1)@) -0.3030558
-7.03166        MI@_1($C0?0)    -0.1625637
-6.75739        MI@_1($C0?0),   -0.1637357
-7.468491       MI@_1(@PE)      -0.16385
-7.468491       MI@_2($C0?0)    -0.1637803
-6.825836       MI@_2($C0?0),   -0.1636244
-7.239256       MI@_2inverse(this,$C0?0,$C0?0,$C0?0,$C0?1)@)
-7.239256       MI@_2(@PE)      -0.1576793
-7.468491       MI@_2(@PE);     -0.16385
-7.239256       VD@PredicatedRuleCallElements   -0.3037319
\2-grams:

-0.5026901      A@a0.int10=1; A@a1.int10=2;
-0.5026901      A@a0.int1=1; A@$F0?0=@HO
\3-grams:

-0.3199112      A@a11.$F0?0=@HO CE@(float)a11.affine; A@a12.$F0?0=@HO